-0.987462 0.619577 -0.599594 0.224860 -0.746794 -0.886220 -1.114094 1.265726 -0.270562 0.568910 -1.045941 1.124462 -0.161790 -1.037776 -1.058880 -0.619306 0.176561 -0.281230 0.254165 -0.274426 -0.188276 0.194737 -0.263935 -0.225384 0.187516 -0.174837 0.265583 -0.270770 -0.275223 -0.265744 0.282295 -0.257874 -0.192925 0.227586 -0.228315 0.251320 -0.220738 0.188613 -0.189326 -0.207880 0.252849 -0.271409 -0.273542 -0.274394 -0.238300 -0.289541 0.237567 -0.233188
1.239342 -0.785918 0.783912 -0.246094 0.890926 1.127354 1.345701 -1.448736 0.302308 -0.736670 1.280259 -1.286214 0.112903 1.259833 1.263818 0.764716 -0.233666 0.243717 -0.223005 0.247733 0.251723 -0.210663 0.226192 0.239541 -0.211771 0.205821 -0.245603 0.306125 0.200040 0.274805 -0.304378 0.282864 0.300055 -0.308401 0.241022 -0.220602 0.232812 -0.239962 0.212448 0.228099 -0.197708 0.229630 0.216995 0.306722 0.228099 0.317532 -0.236629 0.308664
-1.065376 0.585432 -0.616286 0.150516 -0.793215 -0.928908 -1.163103 1.242684 -0.290212 0.546239 -1.126327 1.138865 -0.170699 -1.143272 -1.106657 -0.673265 0.206853 -0.215428 0.246495 -0.247422 -0.168203 0.283536 -0.254325 -0.243729 0.285354 -0.261276 0.212815 -0.210158 -0.202236 -0.221301 0.252625 -0.198010 -0.208756 0.217110 -0.228891 0.289645 -0.178263 0.171203 -0.246615 -0.292190 0.187415 -0.286783 -0.264041 -0.236053 -0.220424 -0.311486 0.227527 -0.294376
1.102854 -0.636562 0.687093 -0.193736 0.788165 1.038367 1.278718 -1.367648 0.313071 -0.615568 1.132108 -1.224711 0.120666 1.229723 1.240360 0.651733 -0.245536 0.278207 -0.270757 0.255448 0.189274 -0.283702 0.260492 0.272243 -0.255614 0.217071 -0.186132 0.266100 0.219870 0.281679 -0.260057 0.185485 0.276885 -0.237229 0.224435 -0.271565 0.180768 -0.190222 0.187079 0.303739 -0.229002 0.195821 0.253362 0.300229 0.221159 0.244408 -0.248880 0.294671
0.910858 -0.541443 0.585220 -0.173467 0.724435 0.852410 1.073613 -1.117557 0.288301 -0.503510 0.992110 -1.022144 0.066808 1.017885 1.028615 0.531736 -0.229105 0.264544 -0.275917 0.245663 0.186365 -0.235839 0.277335 0.275885 -0.224802 0.220042 -0.193619 0.204983 0.238661 0.297277 -0.268007 0.185060 0.260396 -0.291823 0.178297 -0.202475 0.242569 -0.186569 0.202127 0.290360 -0.208177 0.227096 0.213689 0.277528 0.236906 0.242917 -0.273966 0.279463
-1.189360 0.693921 -0.720608 0.229964 -0.823612 -1.077983 -1.302391 1.410642 -0.293400 0.670469 -1.180614 1.246696 -0.161358 -1.230318 -1.211708 -0.743540 0.272227 -0.300046 0.224315 -0.271741 -0.217042 0.287140 -0.279259 -0.251245 0.284408 -0.201543 0.255923 -0.218598 -0.252676 -0.223205 0.231354 -0.190085 -0.207793 0.230713 -0.240868 0.225057 -0.276116 0.167913 -0.207489 -0.262658 0.188765 -0.228121 -0.231937 -0.309612 -0.228548 -0.281417 0.245256 -0.303991
1.163601 -0.685798 0.764955 -0.247644 0.933032 1.090503 1.367380 -1.431388 0.306719 -0.694577 1.269902 -1.253953 0.108744 1.232083 1.325969 0.712873 -0.203221 0.259070 -0.224220 0.286539 0.184257 -0.246155 0.242597 0.291503 -0.237333 0.250186 -0.191779 0.257676 0.275995 0.248941 -0.309569 0.281635 0.260757 -0.258929 0.281516 -0.237003 0.270813 -0.237182 0.209515 0.260806 -0.257527 0.199782 0.228487 0.281450 0.192971 0.296999 -0.204585 0.277008
1.067303 -0.637461 0.679746 -0.178752 0.737682 0.929009 1.164131 -1.297206 0.324978 -0.552920 1.131137 -1.081597 0.104226 1.127329 1.161686 0.592405 -0.207970 0.298658 -0.201647 0.207268 0.207439 -0.253785 0.246335 0.243168 -0.273623 0.227101 -0.187604 0.269070 0.202235 0.234716 -0.288002 0.252609 0.292752 -0.245634 0.189681 -0.291607 0.175093 -0.163964 0.242954 0.231253 -0.187798 0.283696 0.204992 0.220856 0.231284 0.278143 -0.289532 0.276195
-1.083541 0.605181 -0.603659 0.152983 -0.752788 -0.936896 -1.200760 1.264693 -0.258529 0.642284 -1.116658 1.079042 -0.113522 -1.089841 -1.138918 -0.593713 0.241723 -0.277999 0.270252 -0.253849 -0.174462 0.251634 -0.288608 -0.240222 0.191418 -0.261975 0.181586 -0.274646 -0.245486 -0.246028 0.220689 -0.202831 -0.204078 0.235487 -0.220326 0.249730 -0.200394 0.231642 -0.190657 -0.296042 0.258205 -0.272615 -0.230205 -0.249634 -0.219460 -0.305526 0.216895 -0.236147
1.035160 -0.563298 0.558702 -0.215951 0.710489 0.866829 1.082539 -1.243442 0.293072 -0.594079 1.013663 -1.114202 0.148346 1.067426 1.096243 0.648632 -0.247668 0.272484 -0.232208 0.266955 0.240241 -0.267335 0.265103 0.207972 -0.256907 0.181056 -0.191976 0.258647 0.234754 0.220401 -0.237860 0.260744 0.208289 -0.205509 0.205728 -0.225504 0.252116 -0.161219 0.251207 0.261411 -0.248121 0.207078 0.283808 0.265796 0.259201 0.281101 -0.261694 0.249660
-1.047987 0.586740 -0.667431 0.223698 -0.779769 -0.975508 -1.147937 1.258068 -0.283378 0.555547 -1.077094 1.107455 -0.130696 -1.101046 -1.114485 -0.607511 0.271475 -0.295203 0.207679 -0.265928 -0.216731 0.234742 -0.297365 -0.211827 0.233165 -0.230150 0.198349 -0.207227 -0.248212 -0.267111 0.308036 -0.270282 -0.276751 0.234269 -0.232691 0.251053 -0.209229 0.168754 -0.173754 -0.307359 0.197453 -0.200039 -0.237079 -0.293942 -0.217137 -0.218610 0.257680 -0.241749
1.199171 -0.687648 0.719904 -0.176086 0.880432 1.012275 1.252289 -1.422908 0.296047 -0.673739 1.208281 -1.290483 0.185302 1.250881 1.211074 0.733882 -0.208199 0.300725 -0.228632 0.218502 0.216721 -0.256547 0.273637 0.232651 -0.251210 0.204798 -0.265626 0.250851 0.212173 0.261591 -0.233463 0.257222 0.243318 -0.244015 0.194404 -0.306904 0.197968 -0.156154 0.257433 0.300563 -0.195366 0.281134 0.210737 0.305022 0.236106 0.295784 -0.266232 0.292071
1.077850 -0.653371 0.703859 -0.210907 0.862725 1.008421 1.204421 -1.371363 0.270337 -0.627729 1.211982 -1.194520 0.126025 1.134579 1.157335 0.732605 -0.212715 0.246110 -0.205095 0.262908 0.188677 -0.246917 0.232369 0.209533 -0.252564 0.208354 -0.196905 0.236144 0.237301 0.244649 -0.278123 0.199100 0.244381 -0.270601 0.272666 -0.259514 0.270255 -0.256544 0.185615 0.316959 -0.281390 0.200975 0.233200 0.251984 0.274053 0.298590 -0.212576 0.269827
1.136753 -0.702845 0.655650 -0.230789 0.877848 1.041380 1.312158 -1.421937 0.344529 -0.634685 1.226592 -1.270478 0.123435 1.224966 1.274589 0.716542 -0.180967 0.216875 -0.254686 0.274900 0.208707 -0.230838 0.219295 0.283536 -0.215802 0.227566 -0.245045 0.281478 0.221385 0.290018 -0.285010 0.200773 0.246212 -0.240448 0.209725 -0.300869 0.255062 -0.208595 0.204827 0.296380 -0.245160 0.201640 0.261828 0.231054 0.270091 0.307899 -0.234163 0.211336
-1.219451 0.727032 -0.763898 0.250021 -0.863427 -1.101893 -1.329400 1.445946 -0.380741 0.665451 -1.284158 1.254499 -0.187526 -1.200450 -1.310267 -0.728214 0.194525 -0.245540 0.198437 -0.243470 -0.167713 0.273627 -0.308077 -0.268135 0.190392 -0.208842 0.239916 -0.247109 -0.206691 -0.258751 0.308279 -0.250551 -0.227712 0.224267 -0.254167 0.306307 -0.204984 0.203486 -0.254114 -0.224027 0.191530 -0.253221 -0.245975 -0.303431 -0.262400 -0.290379 0.288858 -0.262921
0.949315 -0.573345 0.640063 -0.211908 0.749602 0.924251 1.074041 -1.184442 0.275367 -0.578238 1.060194 -1.080785 0.144257 1.075423 1.076989 0.648961 -0.185625 0.287585 -0.235445 0.215986 0.218991 -0.266782 0.228900 0.219970 -0.237711 0.254729 -0.225666 0.234705 0.241566 0.271139 -0.263523 0.266004 0.229562 -0.245133 0.250085 -0.212573 0.179793 -0.223788 0.237292 0.222881 -0.207719 0.222727 0.212132 0.253198 0.209489 0.295667 -0.197548 0.262658
1.159632 -0.677701 0.651182 -0.204253 0.788460 1.059799 1.211928 -1.377156 0.306656 -0.635998 1.221068 -1.185672 0.184464 1.215042 1.186946 0.738854 -0.265751 0.228325 -0.244946 0.277001 0.177920 -0.244371 0.306653 0.228964 -0.281045 0.201632 -0.213854 0.232821 0.223113 0.259422 -0.243779 0.253678 0.291790 -0.235626 0.213992 -0.270202 0.196069 -0.247949 0.191391 0.274433 -0.202455 0.247558 0.223556 0.302380 0.203588 0.297630 -0.267502 0.231455
-1.221715 0.703496 -0.688615 0.257603 -0.901759 -1.089276 -1.312786 1.422066 -0.377815 0.649331 -1.270998 1.293948 -0.113633 -1.208702 -1.295868 -0.780441 0.271405 -0.312192 0.208980 -0.225114 -0.254362 0.229567 -0.220733 -0.219706 0.188230 -0.243815 0.279573 -0.227928 -0.212583 -0.238305 0.323505 -0.240059 -0.247565 0.299233 -0.254270 0.290095 -0.249215 0.176530 -0.241202 -0.291343 0.210139 -0.197706 -0.263967 -0.294291 -0.184204 -0.310913 0.210298 -0.294695
1.048018 -0.618830 0.699991 -0.212182 0.803040 1.008847 1.163522 -1.294737 0.264087 -0.623502 1.193187 -1.134471 0.137447 1.144900 1.124647 0.645746 -0.231779 0.215592 -0.215792 0.218782 0.221432 -0.237946 0.273278 0.255640 -0.250133 0.214237 -0.230212 0.295801 0.240452 0.294078 -0.233979 0.229269 0.293039 -0.259899 0.183585 -0.283355 0.262042 -0.161254 0.191894 0.281327 -0.181378 0.239690 0.265681 0.294682 0.262643 0.304403 -0.246532 0.251038
-1.186040 0.773162 -0.788099 0.220703 -0.924691 -1.063838 -1.314815 1.441298 -0.290850 0.722303 -1.244112 1.310142 -0.159897 -1.284806 -1.248962 -0.711293 0.250053 -0.229362 0.279090 -0.244256 -0.193632 0.245440 -0.289752 -0.220098 0.272953 -0.167775 0.268845 -0.268381 -0.208491 -0.251347 0.236756 -0.212413 -0.279209 0.282570 -0.221586 0.302925 -0.201972 0.222380 -0.246114 -0.297778 0.247073 -0.242261 -0.267009 -0.283040 -0.193511 -0.300451 0.287294 -0.254292
0.947529 -0.606649 0.560973 -0.164215 0.745750 0.920708 1.079957 -1.209985 0.205909 -0.512986 1.003282 -1.082334 0.106606 1.031224 1.089128 0.574245 -0.268249 0.282125 -0.187336 0.262821 0.228345 -0.281621 0.205599 0.197250 -0.224067 0.180124 -0.209432 0.266714 0.185959 0.253394 -0.238641 0.271466 0.286419 -0.269876 0.251697 -0.223726 0.176475 -0.179155 0.248082 0.220922 -0.202576 0.280212 0.241075 0.226453 0.227687 0.290713 -0.190719 0.279537
-0.874752 0.488554 -0.550152 0.192889 -0.690251 -0.807461 -1.008009 1.059889 -0.189440 0.511993 -0.905145 0.934406 -0.039465 -0.886947 -0.977214 -0.492032 0.247326 -0.251913 0.259819 -0.238934 -0.205420 0.246119 -0.239897 -0.214668 0.211315 -0.191893 0.271247 -0.270901 -0.230339 -0.275700 0.269974 -0.250810 -0.241455 0.229720 -0.237909 0.286447 -0.180401 0.230900 -0.169473 -0.223600 0.241924 -0.265997 -0.245781 -0.261095 -0.172292 -0.193030 0.238016 -0.210973
0.981140 -0.605981 0.611185 -0.121956 0.680015 0.818150 1.080898 -1.151570 0.233787 -0.546170 0.984420 -1.006338 0.071392 1.007047 1.078659 0.600444 -0.222930 0.279666 -0.272842 0.272046 0.182667 -0.187728 0.196681 0.183947 -0.186030 0.254347 -0.246192 0.238665 0.280103 0.243436 -0.298618 0.240017 0.202578 -0.257154 0.186976 -0.294855 0.242759 -0.218951 0.173245 0.247048 -0.251445 0.189338 0.276871 0.241696 0.192011 0.251470 -0.263421 0.237327
1.245920 -0.769562 0.792503 -0.225669 0.925251 1.089853 1.370435 -1.498035 0.369211 -0.742735 1.260455 -1.270159 0.181463 1.252500 1.274790 0.714157 -0.250387 0.226981 -0.285837 0.232128 0.182522 -0.266583 0.241324 0.250301 -0.208896 0.207761 -0.194315 0.295834 0.287282 0.298454 -0.306884 0.262248 0.261430 -0.264581 0.197217 -0.312816 0.240349 -0.177127 0.248949 0.298505 -0.244568 0.228345 0.242753 0.275077 0.201757 0.267493 -0.226359 0.237957
-1.093362 0.684295 -0.612178 0.139359 -0.818997 -0.950906 -1.171219 1.271737 -0.234860 0.649403 -1.119150 1.169051 -0.139359 -1.138155 -1.138845 -0.656320 0.220608 -0.223843 0.190966 -0.275162 -0.208807 0.221227 -0.232040 -0.266910 0.263875 -0.208776 0.224115 -0.299972 -0.284758 -0.301160 0.313213 -0.281053 -0.224017 0.253550 -0.189752 0.267788 -0.181983 0.203714 -0.259057 -0.223472 0.228197 -0.282434 -0.241385 -0.222259 -0.210442 -0.274052 0.195661 -0.266319
1.081949 -0.624106 0.702429 -0.166340 0.844014 1.014749 1.194782 -1.368853 0.289191 -0.664609 1.131539 -1.207959 0.142076 1.127203 1.164217 0.673502 -0.257962 0.263028 -0.263434 0.289706 0.206892 -0.273051 0.255608 0.221386 -0.205957 0.192528 -0.195127 0.284391 0.215597 0.274249 -0.272048 0.252994 0.217102 -0.309096 0.245060 -0.230659 0.221427 -0.158100 0.270450 0.298663 -0.272018 0.198050 0.203531 0.239840 0.214399 0.246733 -0.251443 0.267359
1.106706 -0.667006 0.614399 -0.176475 0.784802 1.010677 1.215703 -1.341991 0.337423 -0.578926 1.156804 -1.163621 0.123416 1.163831 1.169642 0.661958 -0.256072 0.271289 -0.273948 0.292962 0.207380 -0.244075 0.276483 0.223876 -0.273584 0.237999 -0.235396 0.231268 0.247128 0.305587 -0.265866 0.186115 0.213603 -0.237425 0.270109 -0.285019 0.180303 -0.164089 0.208831 0.214034 -0.254643 0.209406 0.224223 0.284119 0.201491 0.271595 -0.232648 0.296623
1.226410 -0.731056 0.717555 -0.258376 0.898272 1.144879 1.352366 -1.482649 0.366142 -0.750593 1.288913 -1.252445 0.128963 1.280380 1.336662 0.739492 -0.184645 0.247728 -0.241538 0.232824 0.183120 -0.231193 0.293795 0.248093 -0.257820 0.236060 -0.250175 0.272259 0.243984 0.308140 -0.309276 0.270763 0.250979 -0.299222 0.204086 -0.277549 0.248481 -0.173213 0.167717 0.228885 -0.232357 0.250518 0.224459 0.301061 0.241195 0.291461 -0.259131 0.293067
0.990682 -0.580571 0.643628 -0.133467 0.708125 0.914397 1.161738 -1.227777 0.246302 -0.585411 1.131222 -1.094633 0.155694 1.049962 1.112350 0.660613 -0.198762 0.290214 -0.245516 0.267405 0.161192 -0.236344 0.209704 0.205687 -0.231894 0.255529 -0.229990 0.214796 0.249611 0.282924 -0.290341 0.231783 0.254793 -0.286603 0.200695 -0.238529 0.258429 -0.172026 0.255612 0.227222 -0.223330 0.254971 0.227223 0.301139 0.223735 0.275276 -0.226026 0.247414
1.224528 -0.781197 0.754960 -0.226740 0.887111 1.042951 1.293525 -1.475256 0.312548 -0.691908 1.281490 -1.250638 0.189651 1.213486 1.308334 0.747774 -0.190608 0.264211 -0.264252 0.225530 0.219421 -0.279742 0.300777 0.252453 -0.222400 0.213385 -0.263055 0.254953 0.239176 0.270454 -0.265144 0.223059 0.282501 -0.246124 0.203414 -0.265691 0.224751 -0.163124 0.246099 0.284128 -0.220011 0.247804 0.210606 0.264930 0.200699 0.308554 -0.249124 0.250546
-1.081275 0.639540 -0.625680 0.198337 -0.797086 -0.924723 -1.194253 1.286193 -0.298290 0.648216 -1.171549 1.095680 -0.176341 -1.173496 -1.155211 -0.703490 0.251813 -0.291094 0.251468 -0.248139 -0.186003 0.284417 -0.239834 -0.221205 0.199072 -0.242125 0.206790 -0.257707 -0.256158 -0.278898 0.300516 -0.233016 -0.215776 0.232325 -0.207071 0.236904 -0.236179 0.185257 -0.257544 -0.298979 0.208404 -0.278953 -0.192192 -0.253120 -0.260503 -0.242489 0.229003 -0.262043
1.090910 -0.650239 0.703437 -0.218905 0.871053 1.020617 1.264807 -1.343395 0.315415 -0.640024 1.197450 -1.242168 0.187802 1.140067 1.226807 0.676199 -0.260995 0.295985 -0.243311 0.247913 0.157634 -0.213278 0.269013 0.277064 -0.272377 0.208541 -0.195284 0.238134 0.251566 0.271852 -0.279773 0.237565 0.204906 -0.216541 0.259668 -0.300571 0.190675 -0.149937 0.258231 0.289263 -0.243737 0.188786 0.221988 0.289506 0.244584 0.271730 -0.250539 0.211892
